Language model created by QuickLM on Thu Apr  1 09:43:50 EDT 2021
Copyright (c) 1996-2010 Carnegie Mellon University and Alexander I. Rudnicky

The model is in standard ARPA format, designed by Doug Paul while he was at MITRE.

The code that was used to produce this language model is available in Open Source.
Please visit http://www.speech.cs.cmu.edu/tools/ for more information

The (fixed) discount mass is 0.5. The backoffs are computed using the ratio method.
This model based on a corpus of 96 sentences and 98 words

\data\
ngram 1=98
ngram 2=192
ngram 3=96

\1-grams:
-0.7782 </s> -0.3010
-0.7782 <s> -0.2218
-2.7604 AIRPORT -0.2218
-2.7604 ANTIQUEDOOR -0.2218
-2.7604 ARCH -0.2218
-2.7604 ATM -0.2218
-2.7604 BAKERY -0.2218
-2.7604 BANK -0.2218
-2.7604 BAR -0.2218
-2.7604 BARANDRESTAURANT -0.2218
-2.7604 BLOCKED -0.2218
-2.7604 BLOCKEDBYDEBRIS -0.2218
-2.7604 BUILDING -0.2218
-2.7604 BUSSTATION -0.2218
-2.7604 BUSSTOP -0.2218
-2.7604 BUTCHER -0.2218
-2.7604 CAR -0.2218
-2.7604 CINEMA -0.2218
-2.7604 CITYHALL -0.2218
-2.7604 CLOTHES -0.2218
-2.7604 COLLAPSED -0.2218
-2.7604 COURT -0.2218
-2.7604 CROSSROAD -0.2218
-2.7604 CROWDED -0.2218
-2.7604 DEADPEOPLE -0.2218
-2.7604 DESIGNER -0.2218
-2.7604 EMERGENCYBUILDING -0.2218
-2.7604 EMERGENCYOUTDOOR -0.2218
-2.7604 EMERGENCYPEOPLE -0.2218
-2.7604 ENTER -0.2218
-2.7604 FAMILY -0.2218
-2.7604 FASTFOOD -0.2218
-2.7604 FIRESTATION -0.2218
-2.7604 FISHMARKET -0.2218
-2.7604 FLOODED -0.2218
-2.7604 FOUNTAIN -0.2218
-2.7604 GASSTATION -0.2218
-2.7604 GATE -0.2218
-2.7604 GOBACK -0.2218
-2.7604 GOHOME -0.2218
-2.7604 GRAFFITI -0.2218
-2.7604 GREEENGROCERY -0.2218
-2.7604 GROCERY -0.2218
-2.7604 GROUPOFPEOPLE -0.2218
-2.7604 GYM -0.2218
-2.7604 HAIRDRESSER -0.2218
-2.7604 HILL -0.2218
-2.7604 HOLE -0.2218
-2.7604 HOSPITAL -0.2218
-2.7604 HOTEL -0.2218
-2.7604 HYDRANT -0.2218
-2.7604 INJUREDPEOPLE -0.2218
-2.7604 JAIL -0.2218
-2.7604 KEBAB -0.2218
-2.7604 LIBRARY -0.2218
-2.7604 MALL -0.2218
-2.7604 MASSAGE -0.2218
-2.7604 MIDDLEAGEPERSON -0.2218
-2.7604 MILDLYINJURED -0.2218
-2.7604 MONUMENT -0.2218
-2.7604 MUSEUM -0.2218
-2.7604 NEWSSTAND -0.2218
-2.7604 NOFOOD -0.2218
-2.7604 NOMEDICINEPEOPLE -0.2218
-2.7604 NOWATERPEOPLE -0.2218
-2.7604 OBJECT -0.2218
-2.7604 OLDPERSON -0.2218
-2.7604 ONFIRE -0.2218
-2.7604 PANICKEDPEOPLE -0.2218
-2.7604 PEOPLE -0.2218
-2.7604 PHARMACY -0.2218
-2.7604 PIZZERIA -0.2218
-2.7604 PLAYGROUND -0.2218
-2.7604 POSTOFFICE -0.2218
-2.7604 PRISON -0.2218
-2.7604 PRIVATESERVICE -0.2218
-2.7604 PUBLICBUILDING -0.2218
-2.7604 RAILWAYSTATION -0.2218
-2.7604 RESTAURANT -0.2218
-2.7604 SCHOOL -0.2218
-2.7604 SEVERELYINJUREDPEOPLE -0.2218
-2.7604 SHOP -0.2218
-2.7604 SHRINE -0.2218
-2.7604 SITUATION -0.2218
-2.7604 SMALLSQUARE -0.2218
-2.7604 SQUARE -0.2218
-2.7604 STARVINGPEOPLE -0.2218
-2.7604 STATUE -0.2218
-2.7604 STREET -0.2218
-2.7604 STUDENTS -0.2218
-2.7604 STUDIO -0.2218
-2.7604 SUSHI -0.2218
-2.7604 TOBACCO -0.2218
-2.7604 TRAFFICJAM -0.2218
-2.7604 TRAFFICSIGN -0.2218
-2.7604 TRANSPORT -0.2218
-2.7604 TRUCK -0.2218
-2.7604 YOUNGPERSON -0.2218

\2-grams:
-2.2833 <s> AIRPORT 0.0000
-2.2833 <s> ANTIQUEDOOR 0.0000
-2.2833 <s> ARCH 0.0000
-2.2833 <s> ATM 0.0000
-2.2833 <s> BAKERY 0.0000
-2.2833 <s> BANK 0.0000
-2.2833 <s> BAR 0.0000
-2.2833 <s> BARANDRESTAURANT 0.0000
-2.2833 <s> BLOCKED 0.0000
-2.2833 <s> BLOCKEDBYDEBRIS 0.0000
-2.2833 <s> BUILDING 0.0000
-2.2833 <s> BUSSTATION 0.0000
-2.2833 <s> BUSSTOP 0.0000
-2.2833 <s> BUTCHER 0.0000
-2.2833 <s> CAR 0.0000
-2.2833 <s> CINEMA 0.0000
-2.2833 <s> CITYHALL 0.0000
-2.2833 <s> CLOTHES 0.0000
-2.2833 <s> COLLAPSED 0.0000
-2.2833 <s> COURT 0.0000
-2.2833 <s> CROSSROAD 0.0000
-2.2833 <s> CROWDED 0.0000
-2.2833 <s> DEADPEOPLE 0.0000
-2.2833 <s> DESIGNER 0.0000
-2.2833 <s> EMERGENCYBUILDING 0.0000
-2.2833 <s> EMERGENCYOUTDOOR 0.0000
-2.2833 <s> EMERGENCYPEOPLE 0.0000
-2.2833 <s> ENTER 0.0000
-2.2833 <s> FAMILY 0.0000
-2.2833 <s> FASTFOOD 0.0000
-2.2833 <s> FIRESTATION 0.0000
-2.2833 <s> FISHMARKET 0.0000
-2.2833 <s> FLOODED 0.0000
-2.2833 <s> FOUNTAIN 0.0000
-2.2833 <s> GASSTATION 0.0000
-2.2833 <s> GATE 0.0000
-2.2833 <s> GOBACK 0.0000
-2.2833 <s> GOHOME 0.0000
-2.2833 <s> GRAFFITI 0.0000
-2.2833 <s> GREEENGROCERY 0.0000
-2.2833 <s> GROCERY 0.0000
-2.2833 <s> GROUPOFPEOPLE 0.0000
-2.2833 <s> GYM 0.0000
-2.2833 <s> HAIRDRESSER 0.0000
-2.2833 <s> HILL 0.0000
-2.2833 <s> HOLE 0.0000
-2.2833 <s> HOSPITAL 0.0000
-2.2833 <s> HOTEL 0.0000
-2.2833 <s> HYDRANT 0.0000
-2.2833 <s> INJUREDPEOPLE 0.0000
-2.2833 <s> JAIL 0.0000
-2.2833 <s> KEBAB 0.0000
-2.2833 <s> LIBRARY 0.0000
-2.2833 <s> MALL 0.0000
-2.2833 <s> MASSAGE 0.0000
-2.2833 <s> MIDDLEAGEPERSON 0.0000
-2.2833 <s> MILDLYINJURED 0.0000
-2.2833 <s> MONUMENT 0.0000
-2.2833 <s> MUSEUM 0.0000
-2.2833 <s> NEWSSTAND 0.0000
-2.2833 <s> NOFOOD 0.0000
-2.2833 <s> NOMEDICINEPEOPLE 0.0000
-2.2833 <s> NOWATERPEOPLE 0.0000
-2.2833 <s> OBJECT 0.0000
-2.2833 <s> OLDPERSON 0.0000
-2.2833 <s> ONFIRE 0.0000
-2.2833 <s> PANICKEDPEOPLE 0.0000
-2.2833 <s> PEOPLE 0.0000
-2.2833 <s> PHARMACY 0.0000
-2.2833 <s> PIZZERIA 0.0000
-2.2833 <s> PLAYGROUND 0.0000
-2.2833 <s> POSTOFFICE 0.0000
-2.2833 <s> PRISON 0.0000
-2.2833 <s> PRIVATESERVICE 0.0000
-2.2833 <s> PUBLICBUILDING 0.0000
-2.2833 <s> RAILWAYSTATION 0.0000
-2.2833 <s> RESTAURANT 0.0000
-2.2833 <s> SCHOOL 0.0000
-2.2833 <s> SEVERELYINJUREDPEOPLE 0.0000
-2.2833 <s> SHOP 0.0000
-2.2833 <s> SHRINE 0.0000
-2.2833 <s> SITUATION 0.0000
-2.2833 <s> SMALLSQUARE 0.0000
-2.2833 <s> SQUARE 0.0000
-2.2833 <s> STARVINGPEOPLE 0.0000
-2.2833 <s> STATUE 0.0000
-2.2833 <s> STREET 0.0000
-2.2833 <s> STUDENTS 0.0000
-2.2833 <s> STUDIO 0.0000
-2.2833 <s> SUSHI 0.0000
-2.2833 <s> TOBACCO 0.0000
-2.2833 <s> TRAFFICJAM 0.0000
-2.2833 <s> TRAFFICSIGN 0.0000
-2.2833 <s> TRANSPORT 0.0000
-2.2833 <s> TRUCK 0.0000
-2.2833 <s> YOUNGPERSON 0.0000
-0.3010 AIRPORT </s> -0.3010
-0.3010 ANTIQUEDOOR </s> -0.3010
-0.3010 ARCH </s> -0.3010
-0.3010 ATM </s> -0.3010
-0.3010 BAKERY </s> -0.3010
-0.3010 BANK </s> -0.3010
-0.3010 BAR </s> -0.3010
-0.3010 BARANDRESTAURANT </s> -0.3010
-0.3010 BLOCKED </s> -0.3010
-0.3010 BLOCKEDBYDEBRIS </s> -0.3010
-0.3010 BUILDING </s> -0.3010
-0.3010 BUSSTATION </s> -0.3010
-0.3010 BUSSTOP </s> -0.3010
-0.3010 BUTCHER </s> -0.3010
-0.3010 CAR </s> -0.3010
-0.3010 CINEMA </s> -0.3010
-0.3010 CITYHALL </s> -0.3010
-0.3010 CLOTHES </s> -0.3010
-0.3010 COLLAPSED </s> -0.3010
-0.3010 COURT </s> -0.3010
-0.3010 CROSSROAD </s> -0.3010
-0.3010 CROWDED </s> -0.3010
-0.3010 DEADPEOPLE </s> -0.3010
-0.3010 DESIGNER </s> -0.3010
-0.3010 EMERGENCYBUILDING </s> -0.3010
-0.3010 EMERGENCYOUTDOOR </s> -0.3010
-0.3010 EMERGENCYPEOPLE </s> -0.3010
-0.3010 ENTER </s> -0.3010
-0.3010 FAMILY </s> -0.3010
-0.3010 FASTFOOD </s> -0.3010
-0.3010 FIRESTATION </s> -0.3010
-0.3010 FISHMARKET </s> -0.3010
-0.3010 FLOODED </s> -0.3010
-0.3010 FOUNTAIN </s> -0.3010
-0.3010 GASSTATION </s> -0.3010
-0.3010 GATE </s> -0.3010
-0.3010 GOBACK </s> -0.3010
-0.3010 GOHOME </s> -0.3010
-0.3010 GRAFFITI </s> -0.3010
-0.3010 GREEENGROCERY </s> -0.3010
-0.3010 GROCERY </s> -0.3010
-0.3010 GROUPOFPEOPLE </s> -0.3010
-0.3010 GYM </s> -0.3010
-0.3010 HAIRDRESSER </s> -0.3010
-0.3010 HILL </s> -0.3010
-0.3010 HOLE </s> -0.3010
-0.3010 HOSPITAL </s> -0.3010
-0.3010 HOTEL </s> -0.3010
-0.3010 HYDRANT </s> -0.3010
-0.3010 INJUREDPEOPLE </s> -0.3010
-0.3010 JAIL </s> -0.3010
-0.3010 KEBAB </s> -0.3010
-0.3010 LIBRARY </s> -0.3010
-0.3010 MALL </s> -0.3010
-0.3010 MASSAGE </s> -0.3010
-0.3010 MIDDLEAGEPERSON </s> -0.3010
-0.3010 MILDLYINJURED </s> -0.3010
-0.3010 MONUMENT </s> -0.3010
-0.3010 MUSEUM </s> -0.3010
-0.3010 NEWSSTAND </s> -0.3010
-0.3010 NOFOOD </s> -0.3010
-0.3010 NOMEDICINEPEOPLE </s> -0.3010
-0.3010 NOWATERPEOPLE </s> -0.3010
-0.3010 OBJECT </s> -0.3010
-0.3010 OLDPERSON </s> -0.3010
-0.3010 ONFIRE </s> -0.3010
-0.3010 PANICKEDPEOPLE </s> -0.3010
-0.3010 PEOPLE </s> -0.3010
-0.3010 PHARMACY </s> -0.3010
-0.3010 PIZZERIA </s> -0.3010
-0.3010 PLAYGROUND </s> -0.3010
-0.3010 POSTOFFICE </s> -0.3010
-0.3010 PRISON </s> -0.3010
-0.3010 PRIVATESERVICE </s> -0.3010
-0.3010 PUBLICBUILDING </s> -0.3010
-0.3010 RAILWAYSTATION </s> -0.3010
-0.3010 RESTAURANT </s> -0.3010
-0.3010 SCHOOL </s> -0.3010
-0.3010 SEVERELYINJUREDPEOPLE </s> -0.3010
-0.3010 SHOP </s> -0.3010
-0.3010 SHRINE </s> -0.3010
-0.3010 SITUATION </s> -0.3010
-0.3010 SMALLSQUARE </s> -0.3010
-0.3010 SQUARE </s> -0.3010
-0.3010 STARVINGPEOPLE </s> -0.3010
-0.3010 STATUE </s> -0.3010
-0.3010 STREET </s> -0.3010
-0.3010 STUDENTS </s> -0.3010
-0.3010 STUDIO </s> -0.3010
-0.3010 SUSHI </s> -0.3010
-0.3010 TOBACCO </s> -0.3010
-0.3010 TRAFFICJAM </s> -0.3010
-0.3010 TRAFFICSIGN </s> -0.3010
-0.3010 TRANSPORT </s> -0.3010
-0.3010 TRUCK </s> -0.3010
-0.3010 YOUNGPERSON </s> -0.3010

\3-grams:
-0.3010 <s> AIRPORT </s>
-0.3010 <s> ANTIQUEDOOR </s>
-0.3010 <s> ARCH </s>
-0.3010 <s> ATM </s>
-0.3010 <s> BAKERY </s>
-0.3010 <s> BANK </s>
-0.3010 <s> BAR </s>
-0.3010 <s> BARANDRESTAURANT </s>
-0.3010 <s> BLOCKED </s>
-0.3010 <s> BLOCKEDBYDEBRIS </s>
-0.3010 <s> BUILDING </s>
-0.3010 <s> BUSSTATION </s>
-0.3010 <s> BUSSTOP </s>
-0.3010 <s> BUTCHER </s>
-0.3010 <s> CAR </s>
-0.3010 <s> CINEMA </s>
-0.3010 <s> CITYHALL </s>
-0.3010 <s> CLOTHES </s>
-0.3010 <s> COLLAPSED </s>
-0.3010 <s> COURT </s>
-0.3010 <s> CROSSROAD </s>
-0.3010 <s> CROWDED </s>
-0.3010 <s> DEADPEOPLE </s>
-0.3010 <s> DESIGNER </s>
-0.3010 <s> EMERGENCYBUILDING </s>
-0.3010 <s> EMERGENCYOUTDOOR </s>
-0.3010 <s> EMERGENCYPEOPLE </s>
-0.3010 <s> ENTER </s>
-0.3010 <s> FAMILY </s>
-0.3010 <s> FASTFOOD </s>
-0.3010 <s> FIRESTATION </s>
-0.3010 <s> FISHMARKET </s>
-0.3010 <s> FLOODED </s>
-0.3010 <s> FOUNTAIN </s>
-0.3010 <s> GASSTATION </s>
-0.3010 <s> GATE </s>
-0.3010 <s> GOBACK </s>
-0.3010 <s> GOHOME </s>
-0.3010 <s> GRAFFITI </s>
-0.3010 <s> GREEENGROCERY </s>
-0.3010 <s> GROCERY </s>
-0.3010 <s> GROUPOFPEOPLE </s>
-0.3010 <s> GYM </s>
-0.3010 <s> HAIRDRESSER </s>
-0.3010 <s> HILL </s>
-0.3010 <s> HOLE </s>
-0.3010 <s> HOSPITAL </s>
-0.3010 <s> HOTEL </s>
-0.3010 <s> HYDRANT </s>
-0.3010 <s> INJUREDPEOPLE </s>
-0.3010 <s> JAIL </s>
-0.3010 <s> KEBAB </s>
-0.3010 <s> LIBRARY </s>
-0.3010 <s> MALL </s>
-0.3010 <s> MASSAGE </s>
-0.3010 <s> MIDDLEAGEPERSON </s>
-0.3010 <s> MILDLYINJURED </s>
-0.3010 <s> MONUMENT </s>
-0.3010 <s> MUSEUM </s>
-0.3010 <s> NEWSSTAND </s>
-0.3010 <s> NOFOOD </s>
-0.3010 <s> NOMEDICINEPEOPLE </s>
-0.3010 <s> NOWATERPEOPLE </s>
-0.3010 <s> OBJECT </s>
-0.3010 <s> OLDPERSON </s>
-0.3010 <s> ONFIRE </s>
-0.3010 <s> PANICKEDPEOPLE </s>
-0.3010 <s> PEOPLE </s>
-0.3010 <s> PHARMACY </s>
-0.3010 <s> PIZZERIA </s>
-0.3010 <s> PLAYGROUND </s>
-0.3010 <s> POSTOFFICE </s>
-0.3010 <s> PRISON </s>
-0.3010 <s> PRIVATESERVICE </s>
-0.3010 <s> PUBLICBUILDING </s>
-0.3010 <s> RAILWAYSTATION </s>
-0.3010 <s> RESTAURANT </s>
-0.3010 <s> SCHOOL </s>
-0.3010 <s> SEVERELYINJUREDPEOPLE </s>
-0.3010 <s> SHOP </s>
-0.3010 <s> SHRINE </s>
-0.3010 <s> SITUATION </s>
-0.3010 <s> SMALLSQUARE </s>
-0.3010 <s> SQUARE </s>
-0.3010 <s> STARVINGPEOPLE </s>
-0.3010 <s> STATUE </s>
-0.3010 <s> STREET </s>
-0.3010 <s> STUDENTS </s>
-0.3010 <s> STUDIO </s>
-0.3010 <s> SUSHI </s>
-0.3010 <s> TOBACCO </s>
-0.3010 <s> TRAFFICJAM </s>
-0.3010 <s> TRAFFICSIGN </s>
-0.3010 <s> TRANSPORT </s>
-0.3010 <s> TRUCK </s>
-0.3010 <s> YOUNGPERSON </s>

\end\
