Language model created by QuickLM on Thu Apr  1 09:47:40 EDT 2021
Copyright (c) 1996-2010 Carnegie Mellon University and Alexander I. Rudnicky

The model is in standard ARPA format, designed by Doug Paul while he was at MITRE.

The code that was used to produce this language model is available in Open Source.
Please visit http://www.speech.cs.cmu.edu/tools/ for more information

The (fixed) discount mass is 0.5. The backoffs are computed using the ratio method.
This model based on a corpus of 97 sentences and 99 words

\data\
ngram 1=99
ngram 2=194
ngram 3=97

\1-grams:
-0.7782 </s> -0.3010
-0.7782 <s> -0.2218
-2.7649 AIRPORT -0.2218
-2.7649 ANTIQUEDOOR -0.2218
-2.7649 ARCH -0.2218
-2.7649 ATM -0.2218
-2.7649 BAKERY -0.2218
-2.7649 BANK -0.2218
-2.7649 BAR -0.2218
-2.7649 BARANDRESTAURANT -0.2218
-2.7649 BLOCKED -0.2218
-2.7649 BLOCKEDBYDEBRIS -0.2218
-2.7649 BUILDING -0.2218
-2.7649 BUSSTATION -0.2218
-2.7649 BUSSTOP -0.2218
-2.7649 BUTCHER -0.2218
-2.7649 CAR -0.2218
-2.7649 CINEMA -0.2218
-2.7649 CITYHALL -0.2218
-2.7649 CLOTHES -0.2218
-2.7649 COLLAPSED -0.2218
-2.7649 COURT -0.2218
-2.7649 CROSSROAD -0.2218
-2.7649 CROWDED -0.2218
-2.7649 DEADPEOPLE -0.2218
-2.7649 DESIGNER -0.2218
-2.7649 EMERGENCYBUILDING -0.2218
-2.7649 EMERGENCYOUTDOOR -0.2218
-2.7649 EMERGENCYPEOPLE -0.2218
-2.7649 ENTER -0.2218
-2.7649 FAMILY -0.2218
-2.7649 FASTFOOD -0.2218
-2.7649 FIRESTATION -0.2218
-2.7649 FISHMARKET -0.2218
-2.7649 FLOODED -0.2218
-2.7649 FOUNTAIN -0.2218
-2.7649 GASSTATION -0.2218
-2.7649 GATE -0.2218
-2.7649 GOBACK -0.2218
-2.7649 GOHOME -0.2218
-2.7649 GRAFFITI -0.2218
-2.7649 GREEENGROCERY -0.2218
-2.7649 GROCERY -0.2218
-2.7649 GROUPOFPEOPLE -0.2218
-2.7649 GYM -0.2218
-2.7649 HAIRDRESSER -0.2218
-2.7649 HILL -0.2218
-2.7649 HOLE -0.2218
-2.7649 HOSPITAL -0.2218
-2.7649 HOTEL -0.2218
-2.7649 HYDRANT -0.2218
-2.7649 INJUREDPEOPLE -0.2218
-2.7649 JAIL -0.2218
-2.7649 KEBAB -0.2218
-2.7649 LIBRARY -0.2218
-2.7649 MALL -0.2218
-2.7649 MASSAGE -0.2218
-2.7649 MIDDLEAGEPERSON -0.2218
-2.7649 MILDLYINJURED -0.2218
-2.7649 MONUMENT -0.2218
-2.7649 MUSEUM -0.2218
-2.7649 NEWSSTAND -0.2218
-2.7649 NOFOOD -0.2218
-2.7649 NOMEDICINEPEOPLE -0.2218
-2.7649 NOWATERPEOPLE -0.2218
-2.7649 OBJECT -0.2218
-2.7649 OLDPERSON -0.2218
-2.7649 ONFIRE -0.2218
-2.7649 PANICKEDPEOPLE -0.2218
-2.7649 PEOPLE -0.2218
-2.7649 PHARMACY -0.2218
-2.7649 PIZZERIA -0.2218
-2.7649 PLAYGROUND -0.2218
-2.7649 POSTOFFICE -0.2218
-2.7649 PRISON -0.2218
-2.7649 PRIVATESERVICE -0.2218
-2.7649 PUBLICBUILDING -0.2218
-2.7649 RAILWAYSTATION -0.2218
-2.7649 REPAIR -0.2218
-2.7649 RESTAURANT -0.2218
-2.7649 SCHOOL -0.2218
-2.7649 SEVERELYINJUREDPEOPLE -0.2218
-2.7649 SHOP -0.2218
-2.7649 SHRINE -0.2218
-2.7649 SITUATION -0.2218
-2.7649 SMALLSQUARE -0.2218
-2.7649 SQUARE -0.2218
-2.7649 STARVINGPEOPLE -0.2218
-2.7649 STATUE -0.2218
-2.7649 STREET -0.2218
-2.7649 STUDENTS -0.2218
-2.7649 STUDIO -0.2218
-2.7649 SUSHI -0.2218
-2.7649 TOBACCO -0.2218
-2.7649 TRAFFICJAM -0.2218
-2.7649 TRAFFICSIGN -0.2218
-2.7649 TRANSPORT -0.2218
-2.7649 TRUCK -0.2218
-2.7649 YOUNGPERSON -0.2218

\2-grams:
-2.2878 <s> AIRPORT 0.0000
-2.2878 <s> ANTIQUEDOOR 0.0000
-2.2878 <s> ARCH 0.0000
-2.2878 <s> ATM 0.0000
-2.2878 <s> BAKERY 0.0000
-2.2878 <s> BANK 0.0000
-2.2878 <s> BAR 0.0000
-2.2878 <s> BARANDRESTAURANT 0.0000
-2.2878 <s> BLOCKED 0.0000
-2.2878 <s> BLOCKEDBYDEBRIS 0.0000
-2.2878 <s> BUILDING 0.0000
-2.2878 <s> BUSSTATION 0.0000
-2.2878 <s> BUSSTOP 0.0000
-2.2878 <s> BUTCHER 0.0000
-2.2878 <s> CAR 0.0000
-2.2878 <s> CINEMA 0.0000
-2.2878 <s> CITYHALL 0.0000
-2.2878 <s> CLOTHES 0.0000
-2.2878 <s> COLLAPSED 0.0000
-2.2878 <s> COURT 0.0000
-2.2878 <s> CROSSROAD 0.0000
-2.2878 <s> CROWDED 0.0000
-2.2878 <s> DEADPEOPLE 0.0000
-2.2878 <s> DESIGNER 0.0000
-2.2878 <s> EMERGENCYBUILDING 0.0000
-2.2878 <s> EMERGENCYOUTDOOR 0.0000
-2.2878 <s> EMERGENCYPEOPLE 0.0000
-2.2878 <s> ENTER 0.0000
-2.2878 <s> FAMILY 0.0000
-2.2878 <s> FASTFOOD 0.0000
-2.2878 <s> FIRESTATION 0.0000
-2.2878 <s> FISHMARKET 0.0000
-2.2878 <s> FLOODED 0.0000
-2.2878 <s> FOUNTAIN 0.0000
-2.2878 <s> GASSTATION 0.0000
-2.2878 <s> GATE 0.0000
-2.2878 <s> GOBACK 0.0000
-2.2878 <s> GOHOME 0.0000
-2.2878 <s> GRAFFITI 0.0000
-2.2878 <s> GREEENGROCERY 0.0000
-2.2878 <s> GROCERY 0.0000
-2.2878 <s> GROUPOFPEOPLE 0.0000
-2.2878 <s> GYM 0.0000
-2.2878 <s> HAIRDRESSER 0.0000
-2.2878 <s> HILL 0.0000
-2.2878 <s> HOLE 0.0000
-2.2878 <s> HOSPITAL 0.0000
-2.2878 <s> HOTEL 0.0000
-2.2878 <s> HYDRANT 0.0000
-2.2878 <s> INJUREDPEOPLE 0.0000
-2.2878 <s> JAIL 0.0000
-2.2878 <s> KEBAB 0.0000
-2.2878 <s> LIBRARY 0.0000
-2.2878 <s> MALL 0.0000
-2.2878 <s> MASSAGE 0.0000
-2.2878 <s> MIDDLEAGEPERSON 0.0000
-2.2878 <s> MILDLYINJURED 0.0000
-2.2878 <s> MONUMENT 0.0000
-2.2878 <s> MUSEUM 0.0000
-2.2878 <s> NEWSSTAND 0.0000
-2.2878 <s> NOFOOD 0.0000
-2.2878 <s> NOMEDICINEPEOPLE 0.0000
-2.2878 <s> NOWATERPEOPLE 0.0000
-2.2878 <s> OBJECT 0.0000
-2.2878 <s> OLDPERSON 0.0000
-2.2878 <s> ONFIRE 0.0000
-2.2878 <s> PANICKEDPEOPLE 0.0000
-2.2878 <s> PEOPLE 0.0000
-2.2878 <s> PHARMACY 0.0000
-2.2878 <s> PIZZERIA 0.0000
-2.2878 <s> PLAYGROUND 0.0000
-2.2878 <s> POSTOFFICE 0.0000
-2.2878 <s> PRISON 0.0000
-2.2878 <s> PRIVATESERVICE 0.0000
-2.2878 <s> PUBLICBUILDING 0.0000
-2.2878 <s> RAILWAYSTATION 0.0000
-2.2878 <s> REPAIR 0.0000
-2.2878 <s> RESTAURANT 0.0000
-2.2878 <s> SCHOOL 0.0000
-2.2878 <s> SEVERELYINJUREDPEOPLE 0.0000
-2.2878 <s> SHOP 0.0000
-2.2878 <s> SHRINE 0.0000
-2.2878 <s> SITUATION 0.0000
-2.2878 <s> SMALLSQUARE 0.0000
-2.2878 <s> SQUARE 0.0000
-2.2878 <s> STARVINGPEOPLE 0.0000
-2.2878 <s> STATUE 0.0000
-2.2878 <s> STREET 0.0000
-2.2878 <s> STUDENTS 0.0000
-2.2878 <s> STUDIO 0.0000
-2.2878 <s> SUSHI 0.0000
-2.2878 <s> TOBACCO 0.0000
-2.2878 <s> TRAFFICJAM 0.0000
-2.2878 <s> TRAFFICSIGN 0.0000
-2.2878 <s> TRANSPORT 0.0000
-2.2878 <s> TRUCK 0.0000
-2.2878 <s> YOUNGPERSON 0.0000
-0.3010 AIRPORT </s> -0.3010
-0.3010 ANTIQUEDOOR </s> -0.3010
-0.3010 ARCH </s> -0.3010
-0.3010 ATM </s> -0.3010
-0.3010 BAKERY </s> -0.3010
-0.3010 BANK </s> -0.3010
-0.3010 BAR </s> -0.3010
-0.3010 BARANDRESTAURANT </s> -0.3010
-0.3010 BLOCKED </s> -0.3010
-0.3010 BLOCKEDBYDEBRIS </s> -0.3010
-0.3010 BUILDING </s> -0.3010
-0.3010 BUSSTATION </s> -0.3010
-0.3010 BUSSTOP </s> -0.3010
-0.3010 BUTCHER </s> -0.3010
-0.3010 CAR </s> -0.3010
-0.3010 CINEMA </s> -0.3010
-0.3010 CITYHALL </s> -0.3010
-0.3010 CLOTHES </s> -0.3010
-0.3010 COLLAPSED </s> -0.3010
-0.3010 COURT </s> -0.3010
-0.3010 CROSSROAD </s> -0.3010
-0.3010 CROWDED </s> -0.3010
-0.3010 DEADPEOPLE </s> -0.3010
-0.3010 DESIGNER </s> -0.3010
-0.3010 EMERGENCYBUILDING </s> -0.3010
-0.3010 EMERGENCYOUTDOOR </s> -0.3010
-0.3010 EMERGENCYPEOPLE </s> -0.3010
-0.3010 ENTER </s> -0.3010
-0.3010 FAMILY </s> -0.3010
-0.3010 FASTFOOD </s> -0.3010
-0.3010 FIRESTATION </s> -0.3010
-0.3010 FISHMARKET </s> -0.3010
-0.3010 FLOODED </s> -0.3010
-0.3010 FOUNTAIN </s> -0.3010
-0.3010 GASSTATION </s> -0.3010
-0.3010 GATE </s> -0.3010
-0.3010 GOBACK </s> -0.3010
-0.3010 GOHOME </s> -0.3010
-0.3010 GRAFFITI </s> -0.3010
-0.3010 GREEENGROCERY </s> -0.3010
-0.3010 GROCERY </s> -0.3010
-0.3010 GROUPOFPEOPLE </s> -0.3010
-0.3010 GYM </s> -0.3010
-0.3010 HAIRDRESSER </s> -0.3010
-0.3010 HILL </s> -0.3010
-0.3010 HOLE </s> -0.3010
-0.3010 HOSPITAL </s> -0.3010
-0.3010 HOTEL </s> -0.3010
-0.3010 HYDRANT </s> -0.3010
-0.3010 INJUREDPEOPLE </s> -0.3010
-0.3010 JAIL </s> -0.3010
-0.3010 KEBAB </s> -0.3010
-0.3010 LIBRARY </s> -0.3010
-0.3010 MALL </s> -0.3010
-0.3010 MASSAGE </s> -0.3010
-0.3010 MIDDLEAGEPERSON </s> -0.3010
-0.3010 MILDLYINJURED </s> -0.3010
-0.3010 MONUMENT </s> -0.3010
-0.3010 MUSEUM </s> -0.3010
-0.3010 NEWSSTAND </s> -0.3010
-0.3010 NOFOOD </s> -0.3010
-0.3010 NOMEDICINEPEOPLE </s> -0.3010
-0.3010 NOWATERPEOPLE </s> -0.3010
-0.3010 OBJECT </s> -0.3010
-0.3010 OLDPERSON </s> -0.3010
-0.3010 ONFIRE </s> -0.3010
-0.3010 PANICKEDPEOPLE </s> -0.3010
-0.3010 PEOPLE </s> -0.3010
-0.3010 PHARMACY </s> -0.3010
-0.3010 PIZZERIA </s> -0.3010
-0.3010 PLAYGROUND </s> -0.3010
-0.3010 POSTOFFICE </s> -0.3010
-0.3010 PRISON </s> -0.3010
-0.3010 PRIVATESERVICE </s> -0.3010
-0.3010 PUBLICBUILDING </s> -0.3010
-0.3010 RAILWAYSTATION </s> -0.3010
-0.3010 REPAIR </s> -0.3010
-0.3010 RESTAURANT </s> -0.3010
-0.3010 SCHOOL </s> -0.3010
-0.3010 SEVERELYINJUREDPEOPLE </s> -0.3010
-0.3010 SHOP </s> -0.3010
-0.3010 SHRINE </s> -0.3010
-0.3010 SITUATION </s> -0.3010
-0.3010 SMALLSQUARE </s> -0.3010
-0.3010 SQUARE </s> -0.3010
-0.3010 STARVINGPEOPLE </s> -0.3010
-0.3010 STATUE </s> -0.3010
-0.3010 STREET </s> -0.3010
-0.3010 STUDENTS </s> -0.3010
-0.3010 STUDIO </s> -0.3010
-0.3010 SUSHI </s> -0.3010
-0.3010 TOBACCO </s> -0.3010
-0.3010 TRAFFICJAM </s> -0.3010
-0.3010 TRAFFICSIGN </s> -0.3010
-0.3010 TRANSPORT </s> -0.3010
-0.3010 TRUCK </s> -0.3010
-0.3010 YOUNGPERSON </s> -0.3010

\3-grams:
-0.3010 <s> AIRPORT </s>
-0.3010 <s> ANTIQUEDOOR </s>
-0.3010 <s> ARCH </s>
-0.3010 <s> ATM </s>
-0.3010 <s> BAKERY </s>
-0.3010 <s> BANK </s>
-0.3010 <s> BAR </s>
-0.3010 <s> BARANDRESTAURANT </s>
-0.3010 <s> BLOCKED </s>
-0.3010 <s> BLOCKEDBYDEBRIS </s>
-0.3010 <s> BUILDING </s>
-0.3010 <s> BUSSTATION </s>
-0.3010 <s> BUSSTOP </s>
-0.3010 <s> BUTCHER </s>
-0.3010 <s> CAR </s>
-0.3010 <s> CINEMA </s>
-0.3010 <s> CITYHALL </s>
-0.3010 <s> CLOTHES </s>
-0.3010 <s> COLLAPSED </s>
-0.3010 <s> COURT </s>
-0.3010 <s> CROSSROAD </s>
-0.3010 <s> CROWDED </s>
-0.3010 <s> DEADPEOPLE </s>
-0.3010 <s> DESIGNER </s>
-0.3010 <s> EMERGENCYBUILDING </s>
-0.3010 <s> EMERGENCYOUTDOOR </s>
-0.3010 <s> EMERGENCYPEOPLE </s>
-0.3010 <s> ENTER </s>
-0.3010 <s> FAMILY </s>
-0.3010 <s> FASTFOOD </s>
-0.3010 <s> FIRESTATION </s>
-0.3010 <s> FISHMARKET </s>
-0.3010 <s> FLOODED </s>
-0.3010 <s> FOUNTAIN </s>
-0.3010 <s> GASSTATION </s>
-0.3010 <s> GATE </s>
-0.3010 <s> GOBACK </s>
-0.3010 <s> GOHOME </s>
-0.3010 <s> GRAFFITI </s>
-0.3010 <s> GREEENGROCERY </s>
-0.3010 <s> GROCERY </s>
-0.3010 <s> GROUPOFPEOPLE </s>
-0.3010 <s> GYM </s>
-0.3010 <s> HAIRDRESSER </s>
-0.3010 <s> HILL </s>
-0.3010 <s> HOLE </s>
-0.3010 <s> HOSPITAL </s>
-0.3010 <s> HOTEL </s>
-0.3010 <s> HYDRANT </s>
-0.3010 <s> INJUREDPEOPLE </s>
-0.3010 <s> JAIL </s>
-0.3010 <s> KEBAB </s>
-0.3010 <s> LIBRARY </s>
-0.3010 <s> MALL </s>
-0.3010 <s> MASSAGE </s>
-0.3010 <s> MIDDLEAGEPERSON </s>
-0.3010 <s> MILDLYINJURED </s>
-0.3010 <s> MONUMENT </s>
-0.3010 <s> MUSEUM </s>
-0.3010 <s> NEWSSTAND </s>
-0.3010 <s> NOFOOD </s>
-0.3010 <s> NOMEDICINEPEOPLE </s>
-0.3010 <s> NOWATERPEOPLE </s>
-0.3010 <s> OBJECT </s>
-0.3010 <s> OLDPERSON </s>
-0.3010 <s> ONFIRE </s>
-0.3010 <s> PANICKEDPEOPLE </s>
-0.3010 <s> PEOPLE </s>
-0.3010 <s> PHARMACY </s>
-0.3010 <s> PIZZERIA </s>
-0.3010 <s> PLAYGROUND </s>
-0.3010 <s> POSTOFFICE </s>
-0.3010 <s> PRISON </s>
-0.3010 <s> PRIVATESERVICE </s>
-0.3010 <s> PUBLICBUILDING </s>
-0.3010 <s> RAILWAYSTATION </s>
-0.3010 <s> REPAIR </s>
-0.3010 <s> RESTAURANT </s>
-0.3010 <s> SCHOOL </s>
-0.3010 <s> SEVERELYINJUREDPEOPLE </s>
-0.3010 <s> SHOP </s>
-0.3010 <s> SHRINE </s>
-0.3010 <s> SITUATION </s>
-0.3010 <s> SMALLSQUARE </s>
-0.3010 <s> SQUARE </s>
-0.3010 <s> STARVINGPEOPLE </s>
-0.3010 <s> STATUE </s>
-0.3010 <s> STREET </s>
-0.3010 <s> STUDENTS </s>
-0.3010 <s> STUDIO </s>
-0.3010 <s> SUSHI </s>
-0.3010 <s> TOBACCO </s>
-0.3010 <s> TRAFFICJAM </s>
-0.3010 <s> TRAFFICSIGN </s>
-0.3010 <s> TRANSPORT </s>
-0.3010 <s> TRUCK </s>
-0.3010 <s> YOUNGPERSON </s>

\end\
