Language model created by QuickLM on Tue Mar  9 06:57:50 EST 2021
Copyright (c) 1996-2010 Carnegie Mellon University and Alexander I. Rudnicky

The model is in standard ARPA format, designed by Doug Paul while he was at MITRE.

The code that was used to produce this language model is available in Open Source.
Please visit http://www.speech.cs.cmu.edu/tools/ for more information

The (fixed) discount mass is 0.5. The backoffs are computed using the ratio method.
This model based on a corpus of 70 sentences and 72 words

\data\
ngram 1=72
ngram 2=140
ngram 3=70

\1-grams:
-0.7782 </s> -0.3010
-0.7782 <s> -0.2218
-2.6232 AIRPORT -0.2218
-2.6232 BAKERY -0.2218
-2.6232 BANK -0.2218
-2.6232 BAR -0.2218
-2.6232 BLOCKEDBUILDING -0.2218
-2.6232 BLOCKEDBYDEBRIS -0.2218
-2.6232 BUILDING -0.2218
-2.6232 BUSSTOP -0.2218
-2.6232 BUTCHER -0.2218
-2.6232 CINEMA -0.2218
-2.6232 CITYHALL -0.2218
-2.6232 COFFEESHOP -0.2218
-2.6232 COLLAPSEDBUILDING -0.2218
-2.6232 COMUNAL -0.2218
-2.6232 COURT -0.2218
-2.6232 CROSSROAD -0.2218
-2.6232 CROWDED -0.2218
-2.6232 DEADPEOPLE -0.2218
-2.6232 EMERGENCYBUILDING -0.2218
-2.6232 EMERGENCYOUTDOOR -0.2218
-2.6232 EMERGENCYPEOPLE -0.2218
-2.6232 FAMILY -0.2218
-2.6232 FIREFIGHTERS -0.2218
-2.6232 FLOODED -0.2218
-2.6232 FOUNTAIN -0.2218
-2.6232 GASSTATION -0.2218
-2.6232 GREEENGROCERY -0.2218
-2.6232 GROCERY -0.2218
-2.6232 GROUPOFPEOPLE -0.2218
-2.6232 GYM -0.2218
-2.6232 HAIRDRESSER -0.2218
-2.6232 HILL -0.2218
-2.6232 HOLE -0.2218
-2.6232 HOSPITAL -0.2218
-2.6232 HOTEL -0.2218
-2.6232 INJUREDPEOPLE -0.2218
-2.6232 INTERSECTION -0.2218
-2.6232 JAIL -0.2218
-2.6232 LIBRARY -0.2218
-2.6232 MALL -0.2218
-2.6232 MIDDLEAGEPERSON -0.2218
-2.6232 MILDLYINJUREDPEOPLE -0.2218
-2.6232 MONUMENT -0.2218
-2.6232 MUSEUM -0.2218
-2.6232 NOFOODPEOPLE -0.2218
-2.6232 NOMEDICINEPEOPLE -0.2218
-2.6232 NOWATERPEOPLE -0.2218
-2.6232 OBJECT -0.2218
-2.6232 OLDPERSON -0.2218
-2.6232 ONFIRE -0.2218
-2.6232 OUTDOOR -0.2218
-2.6232 PANICKEDPEOPLE -0.2218
-2.6232 PEOPLE -0.2218
-2.6232 PHARMACY -0.2218
-2.6232 PLAYGROUND -0.2218
-2.6232 POLICESTATION -0.2218
-2.6232 POSTOFFICE -0.2218
-2.6232 PRISON -0.2218
-2.6232 PUBLIC -0.2218
-2.6232 RAILWAYSTATION -0.2218
-2.6232 SCHOOL -0.2218
-2.6232 SEVERELYINJUREDPEOPLE -0.2218
-2.6232 SHOP -0.2218
-2.6232 SITUATION -0.2218
-2.6232 SQUARE -0.2218
-2.6232 STARVINGPEOPLE -0.2218
-2.6232 STREET -0.2218
-2.6232 STUDENTS -0.2218
-2.6232 TRAFFICJAM -0.2218
-2.6232 YOUNGPERSON -0.2218

\2-grams:
-2.1461 <s> AIRPORT 0.0000
-2.1461 <s> BAKERY 0.0000
-2.1461 <s> BANK 0.0000
-2.1461 <s> BAR 0.0000
-2.1461 <s> BLOCKEDBUILDING 0.0000
-2.1461 <s> BLOCKEDBYDEBRIS 0.0000
-2.1461 <s> BUILDING 0.0000
-2.1461 <s> BUSSTOP 0.0000
-2.1461 <s> BUTCHER 0.0000
-2.1461 <s> CINEMA 0.0000
-2.1461 <s> CITYHALL 0.0000
-2.1461 <s> COFFEESHOP 0.0000
-2.1461 <s> COLLAPSEDBUILDING 0.0000
-2.1461 <s> COMUNAL 0.0000
-2.1461 <s> COURT 0.0000
-2.1461 <s> CROSSROAD 0.0000
-2.1461 <s> CROWDED 0.0000
-2.1461 <s> DEADPEOPLE 0.0000
-2.1461 <s> EMERGENCYBUILDING 0.0000
-2.1461 <s> EMERGENCYOUTDOOR 0.0000
-2.1461 <s> EMERGENCYPEOPLE 0.0000
-2.1461 <s> FAMILY 0.0000
-2.1461 <s> FIREFIGHTERS 0.0000
-2.1461 <s> FLOODED 0.0000
-2.1461 <s> FOUNTAIN 0.0000
-2.1461 <s> GASSTATION 0.0000
-2.1461 <s> GREEENGROCERY 0.0000
-2.1461 <s> GROCERY 0.0000
-2.1461 <s> GROUPOFPEOPLE 0.0000
-2.1461 <s> GYM 0.0000
-2.1461 <s> HAIRDRESSER 0.0000
-2.1461 <s> HILL 0.0000
-2.1461 <s> HOLE 0.0000
-2.1461 <s> HOSPITAL 0.0000
-2.1461 <s> HOTEL 0.0000
-2.1461 <s> INJUREDPEOPLE 0.0000
-2.1461 <s> INTERSECTION 0.0000
-2.1461 <s> JAIL 0.0000
-2.1461 <s> LIBRARY 0.0000
-2.1461 <s> MALL 0.0000
-2.1461 <s> MIDDLEAGEPERSON 0.0000
-2.1461 <s> MILDLYINJUREDPEOPLE 0.0000
-2.1461 <s> MONUMENT 0.0000
-2.1461 <s> MUSEUM 0.0000
-2.1461 <s> NOFOODPEOPLE 0.0000
-2.1461 <s> NOMEDICINEPEOPLE 0.0000
-2.1461 <s> NOWATERPEOPLE 0.0000
-2.1461 <s> OBJECT 0.0000
-2.1461 <s> OLDPERSON 0.0000
-2.1461 <s> ONFIRE 0.0000
-2.1461 <s> OUTDOOR 0.0000
-2.1461 <s> PANICKEDPEOPLE 0.0000
-2.1461 <s> PEOPLE 0.0000
-2.1461 <s> PHARMACY 0.0000
-2.1461 <s> PLAYGROUND 0.0000
-2.1461 <s> POLICESTATION 0.0000
-2.1461 <s> POSTOFFICE 0.0000
-2.1461 <s> PRISON 0.0000
-2.1461 <s> PUBLIC 0.0000
-2.1461 <s> RAILWAYSTATION 0.0000
-2.1461 <s> SCHOOL 0.0000
-2.1461 <s> SEVERELYINJUREDPEOPLE 0.0000
-2.1461 <s> SHOP 0.0000
-2.1461 <s> SITUATION 0.0000
-2.1461 <s> SQUARE 0.0000
-2.1461 <s> STARVINGPEOPLE 0.0000
-2.1461 <s> STREET 0.0000
-2.1461 <s> STUDENTS 0.0000
-2.1461 <s> TRAFFICJAM 0.0000
-2.1461 <s> YOUNGPERSON 0.0000
-0.3010 AIRPORT </s> -0.3010
-0.3010 BAKERY </s> -0.3010
-0.3010 BANK </s> -0.3010
-0.3010 BAR </s> -0.3010
-0.3010 BLOCKEDBUILDING </s> -0.3010
-0.3010 BLOCKEDBYDEBRIS </s> -0.3010
-0.3010 BUILDING </s> -0.3010
-0.3010 BUSSTOP </s> -0.3010
-0.3010 BUTCHER </s> -0.3010
-0.3010 CINEMA </s> -0.3010
-0.3010 CITYHALL </s> -0.3010
-0.3010 COFFEESHOP </s> -0.3010
-0.3010 COLLAPSEDBUILDING </s> -0.3010
-0.3010 COMUNAL </s> -0.3010
-0.3010 COURT </s> -0.3010
-0.3010 CROSSROAD </s> -0.3010
-0.3010 CROWDED </s> -0.3010
-0.3010 DEADPEOPLE </s> -0.3010
-0.3010 EMERGENCYBUILDING </s> -0.3010
-0.3010 EMERGENCYOUTDOOR </s> -0.3010
-0.3010 EMERGENCYPEOPLE </s> -0.3010
-0.3010 FAMILY </s> -0.3010
-0.3010 FIREFIGHTERS </s> -0.3010
-0.3010 FLOODED </s> -0.3010
-0.3010 FOUNTAIN </s> -0.3010
-0.3010 GASSTATION </s> -0.3010
-0.3010 GREEENGROCERY </s> -0.3010
-0.3010 GROCERY </s> -0.3010
-0.3010 GROUPOFPEOPLE </s> -0.3010
-0.3010 GYM </s> -0.3010
-0.3010 HAIRDRESSER </s> -0.3010
-0.3010 HILL </s> -0.3010
-0.3010 HOLE </s> -0.3010
-0.3010 HOSPITAL </s> -0.3010
-0.3010 HOTEL </s> -0.3010
-0.3010 INJUREDPEOPLE </s> -0.3010
-0.3010 INTERSECTION </s> -0.3010
-0.3010 JAIL </s> -0.3010
-0.3010 LIBRARY </s> -0.3010
-0.3010 MALL </s> -0.3010
-0.3010 MIDDLEAGEPERSON </s> -0.3010
-0.3010 MILDLYINJUREDPEOPLE </s> -0.3010
-0.3010 MONUMENT </s> -0.3010
-0.3010 MUSEUM </s> -0.3010
-0.3010 NOFOODPEOPLE </s> -0.3010
-0.3010 NOMEDICINEPEOPLE </s> -0.3010
-0.3010 NOWATERPEOPLE </s> -0.3010
-0.3010 OBJECT </s> -0.3010
-0.3010 OLDPERSON </s> -0.3010
-0.3010 ONFIRE </s> -0.3010
-0.3010 OUTDOOR </s> -0.3010
-0.3010 PANICKEDPEOPLE </s> -0.3010
-0.3010 PEOPLE </s> -0.3010
-0.3010 PHARMACY </s> -0.3010
-0.3010 PLAYGROUND </s> -0.3010
-0.3010 POLICESTATION </s> -0.3010
-0.3010 POSTOFFICE </s> -0.3010
-0.3010 PRISON </s> -0.3010
-0.3010 PUBLIC </s> -0.3010
-0.3010 RAILWAYSTATION </s> -0.3010
-0.3010 SCHOOL </s> -0.3010
-0.3010 SEVERELYINJUREDPEOPLE </s> -0.3010
-0.3010 SHOP </s> -0.3010
-0.3010 SITUATION </s> -0.3010
-0.3010 SQUARE </s> -0.3010
-0.3010 STARVINGPEOPLE </s> -0.3010
-0.3010 STREET </s> -0.3010
-0.3010 STUDENTS </s> -0.3010
-0.3010 TRAFFICJAM </s> -0.3010
-0.3010 YOUNGPERSON </s> -0.3010

\3-grams:
-0.3010 <s> AIRPORT </s>
-0.3010 <s> BAKERY </s>
-0.3010 <s> BANK </s>
-0.3010 <s> BAR </s>
-0.3010 <s> BLOCKEDBUILDING </s>
-0.3010 <s> BLOCKEDBYDEBRIS </s>
-0.3010 <s> BUILDING </s>
-0.3010 <s> BUSSTOP </s>
-0.3010 <s> BUTCHER </s>
-0.3010 <s> CINEMA </s>
-0.3010 <s> CITYHALL </s>
-0.3010 <s> COFFEESHOP </s>
-0.3010 <s> COLLAPSEDBUILDING </s>
-0.3010 <s> COMUNAL </s>
-0.3010 <s> COURT </s>
-0.3010 <s> CROSSROAD </s>
-0.3010 <s> CROWDED </s>
-0.3010 <s> DEADPEOPLE </s>
-0.3010 <s> EMERGENCYBUILDING </s>
-0.3010 <s> EMERGENCYOUTDOOR </s>
-0.3010 <s> EMERGENCYPEOPLE </s>
-0.3010 <s> FAMILY </s>
-0.3010 <s> FIREFIGHTERS </s>
-0.3010 <s> FLOODED </s>
-0.3010 <s> FOUNTAIN </s>
-0.3010 <s> GASSTATION </s>
-0.3010 <s> GREEENGROCERY </s>
-0.3010 <s> GROCERY </s>
-0.3010 <s> GROUPOFPEOPLE </s>
-0.3010 <s> GYM </s>
-0.3010 <s> HAIRDRESSER </s>
-0.3010 <s> HILL </s>
-0.3010 <s> HOLE </s>
-0.3010 <s> HOSPITAL </s>
-0.3010 <s> HOTEL </s>
-0.3010 <s> INJUREDPEOPLE </s>
-0.3010 <s> INTERSECTION </s>
-0.3010 <s> JAIL </s>
-0.3010 <s> LIBRARY </s>
-0.3010 <s> MALL </s>
-0.3010 <s> MIDDLEAGEPERSON </s>
-0.3010 <s> MILDLYINJUREDPEOPLE </s>
-0.3010 <s> MONUMENT </s>
-0.3010 <s> MUSEUM </s>
-0.3010 <s> NOFOODPEOPLE </s>
-0.3010 <s> NOMEDICINEPEOPLE </s>
-0.3010 <s> NOWATERPEOPLE </s>
-0.3010 <s> OBJECT </s>
-0.3010 <s> OLDPERSON </s>
-0.3010 <s> ONFIRE </s>
-0.3010 <s> OUTDOOR </s>
-0.3010 <s> PANICKEDPEOPLE </s>
-0.3010 <s> PEOPLE </s>
-0.3010 <s> PHARMACY </s>
-0.3010 <s> PLAYGROUND </s>
-0.3010 <s> POLICESTATION </s>
-0.3010 <s> POSTOFFICE </s>
-0.3010 <s> PRISON </s>
-0.3010 <s> PUBLIC </s>
-0.3010 <s> RAILWAYSTATION </s>
-0.3010 <s> SCHOOL </s>
-0.3010 <s> SEVERELYINJUREDPEOPLE </s>
-0.3010 <s> SHOP </s>
-0.3010 <s> SITUATION </s>
-0.3010 <s> SQUARE </s>
-0.3010 <s> STARVINGPEOPLE </s>
-0.3010 <s> STREET </s>
-0.3010 <s> STUDENTS </s>
-0.3010 <s> TRAFFICJAM </s>
-0.3010 <s> YOUNGPERSON </s>

\end\
